tree
version=v3
num_class=3
num_tree_per_iteration=3
label_index=0
max_feature_idx=3
objective=multiclass num_class:3
feature_names=sepal_length sepal_width petal_length petal_width
feature_infos=[4.2999999999999998:7.7000000000000002] [2:4.4000000000000004] [1:6.7000000000000002] [0.10000000000000001:2.5]
tree_sizes=546 524 539 645 536 639 752 637 644 650 538 750 530 643 753 762 742 747 766 644 753 755 445 444 882 647 654 672 754 1088 761 549 553 561 654 753 673 551 768 457 758 772 567 558 554 567 973 764

Tree=0
num_leaves=4
num_cat=0
split_feature=2 2 0
split_gain=77.0732 0.0696864 3.55271e-15
threshold=3.1500000000000004 1.4500000000000002 6.1500000000000012
decision_type=2 2 2
left_child=1 -1 -2
right_child=2 -3 -4
leaf_value=0.70138771133189071 -1.9986122886681095 0.57281628276046148 -1.9986122886681099
leaf_weight=6.6666668653488141 12.333333700895311 7.0000002086162567 14.000000417232512
leaf_count=20 37 21 42
internal_value=-1.09861 0.635534 -1.99861
internal_weight=0 13.6667 26.3333
internal_count=120 41 79
is_linear=0
shrinkage=1


Tree=1
num_leaves=4
num_cat=0
split_feature=2 3 3
split_gain=19.2405 39.74 0.47422
threshold=1.8 1.6500000000000001 1.3500000000000003
decision_type=2 2 2
left_child=-1 2 -2
right_child=1 -3 -4
leaf_value=-1.9853120499458499 0.46877869367806113 -1.8411234046095448 0.14867990103146478
leaf_weight=12.821042180061339 8.4348961710929888 12.483646333217619 6.7479169368743888
leaf_count=38 25 37 20
internal_value=-1.07392 -0.651567 0.326513
internal_weight=0 27.6665 15.1828
internal_count=120 82 45
is_linear=0
shrinkage=1


Tree=2
num_leaves=4
num_cat=0
split_feature=2 2 1
split_gain=63.5727 2.03185 0.105245
threshold=4.7500000000000009 5.3500000000000005 2.8500000000000001
decision_type=2 2 2
left_child=2 -2 -1
right_child=1 -3 -4
leaf_value=-1.8825788419353759 0.03846312782198158 0.72222382892205772 -2.0128189754782477
leaf_weight=6.910312324762347 6.5812498331069929 7.5684373080730438 18.427499532699585
leaf_count=21 20 23 56
internal_value=-1.12393 0.404196 -1.9773
internal_weight=0 14.1497 25.3378
internal_count=120 43 77
is_linear=0
shrinkage=1


Tree=3
num_leaves=5
num_cat=0
split_feature=3 1 0 3
split_gain=9.00062 0.1264 0.0280065 0.00013222
threshold=0.45000000000000007 3.0500000000000003 5.6500000000000012 1.6500000000000001
decision_type=2 2 2 2
left_child=-1 2 -2 -4
right_child=1 -3 3 -5
leaf_value=0.74232639634008535 -0.77643678222386958 -0.45024862530358017 -0.64867629327590504 -0.65825768801313156
leaf_weight=6.6499362438917169 2.2152525633573514 2.3214632272720337 2.2917080372571945 2.3762691244482994
leaf_count=38 16 22 23 21
internal_value=0 -0.631853 -0.693102 -0.653554
internal_weight=0 9.20469 6.88323 4.66798
internal_count=120 82 60 44
is_linear=0
shrinkage=0.9


Tree=4
num_leaves=4
num_cat=0
split_feature=3 2 1
split_gain=3.81503 5.78663 1.06749
threshold=0.45000000000000007 5.0500000000000007 2.8500000000000001
decision_type=2 2 2
left_child=-1 2 -2
right_child=1 -3 -4
leaf_value=-0.7279033507179099 0.37667277665652166 -0.58555177869379083 0.95420227992254669
leaf_weight=3.9406394213438061 5.8322819024324399 4.5097224935889235 4.6666702181100845
leaf_count=38 27 32 23
internal_value=0 0.267121 0.633378
internal_weight=0 15.0087 10.499
internal_count=120 82 50
is_linear=0
shrinkage=0.9


Tree=5
num_leaves=5
num_cat=0
split_feature=2 1 3 3
split_gain=6.65143 0.830579 1.00513 0.147779
threshold=4.9500000000000011 3.0500000000000003 1.3500000000000003 0.25000000000000006
decision_type=2 2 2 2
left_child=1 2 -1 -3
right_child=-2 3 -4 -5
leaf_value=-0.64845758621907412 0.60426196553833755 -0.6393884992916834 0.10519138986084865 -0.97829677553933436
leaf_weight=2.9546875767409819 7.8472345024347296 2.0620687901973724 2.783990353345871 2.1070528998970985
leaf_count=29 36 24 14 17
internal_value=0 -0.504948 -0.282842 -0.810671
internal_weight=0 9.9078 5.73868 4.16912
internal_count=120 84 43 41
is_linear=0
shrinkage=0.9


Tree=6
num_leaves=6
num_cat=0
split_feature=3 1 1 0 0
split_gain=2.74684 0.0748047 0.00413355 6.08474e-05 1.54267e-05
threshold=1.0500000000000003 3.3500000000000001 2.6500000000000008 6.0500000000000007 6.5500000000000007
decision_type=2 2 2 2 2
left_child=1 -1 -2 -4 -5
right_child=2 -3 3 4 -6
leaf_value=0.39195970850259082 -0.69278310048253966 0.68145761564335494 -0.62617161974980606 -0.61931617405583939 -0.6135120614577646
leaf_weight=1.2258218228816988 0.86905612610280547 1.7624426074326036 0.81675092317163978 0.76456726714968659 0.72044545225799084
leaf_count=22 13 25 18 19 23
internal_value=0 0.562702 -0.639899 -0.619932 -0.6165
internal_weight=0 2.98826 3.17082 2.30176 1.48501
internal_count=120 47 73 60 42
is_linear=0
shrinkage=0.9


Tree=7
num_leaves=5
num_cat=0
split_feature=1 3 2 1
split_gain=1.24377 0.881401 0.225549 0.0524048
threshold=3.2500000000000004 1.6500000000000001 4.8500000000000005 2.7500000000000004
decision_type=2 2 2 2
left_child=1 2 3 -1
right_child=-2 -3 -4 -5
leaf_value=0.66016311759170665 -0.6448579687751077 -0.20533559914484634 0.15321830276459134 0.43496893055675939
leaf_weight=1.6403038837015613 1.7997548952698714 3.0203305967152119 1.8427138477563856 1.7092401590198276
leaf_count=17 35 30 7 31
internal_value=0 0.181245 0.406118 0.545249
internal_weight=0 8.21259 5.19226 3.34954
internal_count=120 85 55 48
is_linear=0
shrinkage=0.9


Tree=8
num_leaves=5
num_cat=0
split_feature=3 2 2 3
split_gain=1.80959 0.94456 0.0242627 0.000121494
threshold=1.6500000000000001 4.9500000000000011 4.5500000000000007 0.45000000000000007
decision_type=2 2 2 2
left_child=1 2 3 -1
right_child=-2 -3 -4 -5
leaf_value=-0.60996619521506834 0.41378426740926233 0.22809939745706739 -0.79717809340974288 -0.62328520793456832
leaf_weight=0.8976524546742447 4.4003063701093197 1.3738262653350828 0.83025654219090927 1.4522230122238395
leaf_count=38 37 5 8 32
internal_value=0 -0.39552 -0.664925 -0.618197
internal_weight=0 4.55396 3.18013 2.34988
internal_count=120 83 78 70
is_linear=0
shrinkage=0.9


Tree=9
num_leaves=5
num_cat=0
split_feature=2 2 0 0
split_gain=1.03963 0.0151724 3.62299e-05 8.25375e-07
threshold=3.1500000000000004 1.5500000000000003 6.0500000000000007 6.5500000000000007
decision_type=2 2 2 2
left_child=1 -1 -2 -4
right_child=2 -3 3 -5
leaf_value=0.61088556734616051 -0.61554885192208053 0.41576106332360713 -0.6071619618742613 -0.60508195375264551
leaf_weight=0.6562033109366896 0.73894459335133411 0.63528077956289053 0.35230930708348751 0.27526066452264786
leaf_count=31 33 10 23 23
internal_value=0 0.514904 -0.611278 -0.60625
internal_weight=0 1.29148 1.36651 0.62757
internal_count=120 41 79 46
is_linear=0
shrinkage=0.9


Tree=10
num_leaves=4
num_cat=0
split_feature=0 1 0
split_gain=0.7525 0.53787 0.155474
threshold=5.1500000000000012 2.9500000000000006 6.5500000000000007
decision_type=2 2 2
left_child=-1 -2 -3
right_child=1 2 -4
leaf_value=-0.49513479323973031 0.012047276083946592 0.43191373029223323 0.98053780039637084
leaf_weight=1.4022290352731941 2.7494439836591482 1.0479116686619816 0.69649213925003994
leaf_count=34 38 29 19
internal_value=0 0.260059 0.650964
internal_weight=0 4.49385 1.7444
internal_count=120 86 48
is_linear=0
shrinkage=0.9


Tree=11
num_leaves=6
num_cat=0
split_feature=1 2 1 3 3
split_gain=0.869029 1.30509 0.820136 0.304744 2.00426e-05
threshold=2.6500000000000008 5.1500000000000012 2.9500000000000006 1.6500000000000001 1.3500000000000003
decision_type=2 2 2 2 2
left_child=-1 2 -2 4 -4
right_child=1 -3 3 -5 -6
leaf_value=0.50301143896501177 -0.12349871732277762 0.63141729049586037 -0.60371825585739902 -1.4756128675803182 -0.61454288625632125
leaf_weight=1.5621664617210624 1.3781555327586836 0.91353398002684105 0.32425951585173585 0.78070584312081337 0.24192310031503439
leaf_count=20 20 25 40 4 11
internal_value=0 -0.299522 -0.611606 -1.11104 -0.608343
internal_weight=0 3.63858 2.72504 1.34689 0.566183
internal_count=120 100 75 55 51
is_linear=0
shrinkage=0.9


Tree=12
num_leaves=4
num_cat=0
split_feature=2 1 2
split_gain=0.49391 0.0223206 0.00162214
threshold=1.8 2.9500000000000006 3.6000000000000005
decision_type=2 2 2
left_child=-1 2 -2
right_child=1 -3 -4
leaf_value=0.61072006778920329 -0.69520639829150932 -0.36487740275572733 -0.6062296612495961
leaf_weight=0.41871567047201108 0.31616655178368069 0.3393631053622812 0.34935349482111633
leaf_count=38 5 39 38
internal_value=0 -0.552716 -0.6485
internal_weight=0 1.00488 0.66552
internal_count=120 82 43
is_linear=0
shrinkage=0.9


Tree=13
num_leaves=5
num_cat=0
split_feature=1 2 0 1
split_gain=0.55426 0.36062 0.563546 0.348985
threshold=2.7500000000000004 5.0500000000000007 6.0500000000000007 3.1500000000000008
decision_type=2 2 2 2
left_child=-1 2 3 -2
right_child=1 -3 -4 -5
leaf_value=0.26705635363284402 -0.87052177504829775 -0.6983417379939042 0.57787641088671093 0.077744998219889255
leaf_weight=2.4720938000828028 0.67225813027471326 1.1703817835077641 0.7039235197007655 0.5904872165992856
leaf_count=28 17 27 15 33
internal_value=0 -0.302786 -0.0673866 -0.427092
internal_weight=0 3.13705 1.96667 1.26275
internal_count=120 92 65 50
is_linear=0
shrinkage=0.9


Tree=14
num_leaves=6
num_cat=0
split_feature=3 2 2 1 3
split_gain=0.673418 0.44078 0.0153692 1.33788e-05 4.0897e-07
threshold=1.6500000000000001 4.9500000000000011 4.8500000000000005 2.8500000000000001 0.45000000000000007
decision_type=2 2 2 2 2
left_child=1 2 3 -1 -5
right_child=-2 -3 -4 4 -6
leaf_value=-0.61109517054125628 0.41864532254476228 0.10916662066811715 -0.84493150343404777 -0.6010263305772825 -0.60355764768390707
leaf_weight=0.47346121259033702 2.7364955190569162 1.2779768407344816 0.32947425730526447 0.088796110241673887 0.12374802806880325
leaf_count=20 37 5 2 37 19
internal_value=0 -0.242542 -0.685165 -0.608432 -0.6025
internal_weight=0 2.29346 1.01548 0.686005 0.212544
internal_count=120 83 78 76 56
is_linear=0
shrinkage=0.9


Tree=15
num_leaves=6
num_cat=0
split_feature=3 1 2 0 2
split_gain=0.244231 0.0231397 0.00021182 1.92578e-06 2.12095e-08
threshold=1.0500000000000003 3.3500000000000001 3.6000000000000005 6.0500000000000007 5.0500000000000007
decision_type=2 2 2 2 2
left_child=1 -1 -2 -4 -5
right_child=2 -3 3 4 -6
leaf_value=0.15013810153404736 -0.65105617286228246 0.6133122192154028 -0.60620371378428028 -0.60175108020443846 -0.60092523925767416
leaf_weight=0.15747707523405552 0.1084061935544014 0.19624559802468866 0.19459393969736993 0.053374944254755974 0.047702230513095856
leaf_count=22 1 25 26 19 27
internal_value=0 0.407107 -0.617025 -0.604548 -0.601361
internal_weight=0 0.353723 0.404077 0.295671 0.101077
internal_count=120 47 73 72 46
is_linear=0
shrinkage=0.9


Tree=16
num_leaves=6
num_cat=0
split_feature=1 1 2 0 1
split_gain=0.172114 0.536154 0.29513 0.137237 0.131015
threshold=2.6500000000000008 2.7500000000000004 5.0500000000000007 6.0500000000000007 3.1500000000000008
decision_type=2 2 2 2 2
left_child=-1 -2 3 4 -3
right_child=1 2 -4 -5 -6
leaf_value=-0.26427454410331158 0.9113793010579434 -0.42889264098652047 -0.65152274330096094 0.469159773807233 0.21750515854822827
leaf_weight=1.3037576572969554 0.56762283807620439 0.46800796035677217 0.53483489132486273 0.58239770785439748 0.5553883071988821
leaf_count=20 8 17 27 15 33
internal_value=0 0.13373 -0.0724763 0.120384 -0.0780981
internal_weight=0 2.70825 2.14063 1.60579 1.0234
internal_count=120 100 92 65 50
is_linear=0
shrinkage=0.9


Tree=17
num_leaves=6
num_cat=0
split_feature=1 1 2 2 0
split_gain=0.30557 0.468867 0.374076 0.228324 0.561276
threshold=2.6500000000000008 2.7500000000000004 5.0500000000000007 4.8500000000000005 5.9500000000000011
decision_type=2 2 2 2 2
left_child=-1 -2 3 4 -3
right_child=1 2 -4 -5 -6
leaf_value=0.40988639119022979 -0.86824258686832689 -0.75811125944177604 0.65094023317103422 -0.76335446798935824 0.6712415437902578
leaf_weight=1.1404325484763833 0.57139056408777866 0.39583998700254575 0.59810618637129653 0.41139264614321291 0.50824259803630412
leaf_count=20 8 47 27 3 15
internal_value=0 -0.152819 0.0608052 -0.207511 0.0454193
internal_weight=0 2.48497 1.91358 1.31548 0.904083
internal_count=120 100 92 65 62
is_linear=0
shrinkage=0.9


Tree=18
num_leaves=6
num_cat=0
split_feature=1 3 3 2 0
split_gain=0.155969 0.010904 0.00339204 6.14777e-05 1.11035e-08
threshold=3.0500000000000003 0.45000000000000007 1.0500000000000003 3.6000000000000005 5.7500000000000009
decision_type=2 2 2 2 2
left_child=2 -2 -1 -4 -5
right_child=1 -3 3 4 -6
leaf_value=-0.40907400398832527 0.60768266812551897 0.20512366301972104 -0.63433042542230578 -0.60221084198049146 -0.60166801558628114
leaf_weight=0.096666763885878026 0.13438960909843445 0.091685128456447273 0.076787568628787994 0.054848512867465615 0.068821103661321104
leaf_count=13 32 22 1 15 37
internal_value=0 0.444424 -0.547551 -0.614328 -0.601909
internal_weight=0 0.226075 0.297124 0.200457 0.12367
internal_count=120 54 66 53 52
is_linear=0
shrinkage=0.9


Tree=19
num_leaves=5
num_cat=0
split_feature=3 1 1 2
split_gain=0.468637 0.159962 0.252988 0.0719787
threshold=1.6500000000000001 2.3500000000000001 2.7500000000000004 3.9500000000000006
decision_type=2 2 2 2
left_child=1 -1 -3 -4
right_child=-2 2 3 -5
leaf_value=-0.26450060562474881 -0.43823801161536535 0.63017224806523908 -0.60951544954466907 0.12182335638499062
leaf_weight=0.42990406043827567 1.7534427621867505 0.93406964757014044 0.19234487065114081 0.25158607307821512
leaf_count=7 37 14 39 23
internal_value=0 0.214794 0.364323 -0.195049
internal_weight=0 1.8079 1.378 0.443931
internal_count=120 83 76 62
is_linear=0
shrinkage=0.9


Tree=20
num_leaves=6
num_cat=0
split_feature=3 1 0 2 2
split_gain=0.510446 0.252164 0.0816706 0.00895736 1.03325e-06
threshold=1.6500000000000001 2.3500000000000001 6.0500000000000007 5.0500000000000007 3.6000000000000005
decision_type=2 2 2 2 2
left_child=1 -1 3 4 -3
right_child=-2 2 -4 -5 -6
leaf_value=0.3543447930259308 0.45788703928483271 -0.6097324615004055 -0.22746694730358899 -0.83886410450640181 -0.60586285441106491
leaf_weight=0.38570445892401073 1.786763595184311 0.087277041879133099 0.47845841926755384 0.30549928545951843 0.15543270291527733
leaf_count=7 37 42 17 1 16
internal_value=0 -0.266091 -0.499181 -0.736323 -0.607254
internal_weight=0 1.41237 1.02667 0.548209 0.24271
internal_count=120 83 76 59 58
is_linear=0
shrinkage=0.9


Tree=21
num_leaves=6
num_cat=0
split_feature=2 1 0 2 0
split_gain=0.07042 0.00888455 1.14003e-06 4.28123e-08 1.11849e-09
threshold=1.8 3.1500000000000008 5.1500000000000012 4.1500000000000012 5.9500000000000011
decision_type=2 2 2 2 2
left_child=-1 2 -2 -4 -5
right_child=1 -3 3 4 -6
leaf_value=0.60381976171274843 -0.60666606607677609 -0.18097384061293323 -0.60217132686498132 -0.60089469440109 -0.60060876837998067
leaf_weight=0.066623756370972842 0.057628429029136896 0.058352075226139277 0.028057230563717894 0.022001147735863924 0.022328384569846094
leaf_count=38 5 16 12 13 36
internal_value=0 -0.472734 -0.603679 -0.601301 -0.600751
internal_weight=0 0.188367 0.130015 0.0723868 0.0443295
internal_count=120 82 66 61 49
is_linear=0
shrinkage=0.9


Tree=22
num_leaves=3
num_cat=0
split_feature=1 0
split_gain=0.320203 0.0177989
threshold=2.8500000000000001 6.5500000000000007
decision_type=2 2
left_child=-1 -2
right_child=1 -3
leaf_value=-0.19037501473168597 0.36451500059184788 0.62064146348434779
leaf_weight=1.6723052410525272 0.49826719159318589 0.39319639033055864
leaf_count=37 62 21
internal_value=0 0.477484
internal_weight=0 0.891464
internal_count=120 83
is_linear=0
shrinkage=0.9


Tree=23
num_leaves=3
num_cat=0
split_feature=1 1
split_gain=0.39135 0.0247067
threshold=2.8500000000000001 3.1500000000000008
decision_type=2 2
left_child=-1 -2
right_child=1 -3
leaf_value=0.23185460164874322 -0.4168546560931386 -0.7440663033976096
leaf_weight=1.6056685097864831 0.50146315858728474 0.29798442863830132
leaf_count=37 38 45
internal_value=0 -0.538819
internal_weight=0 0.799448
internal_count=120 83
is_linear=0
shrinkage=0.9


Tree=24
num_leaves=7
num_cat=0
split_feature=2 1 1 1 2 3
split_gain=0.0603275 0.00480769 3.81496e-07 1.00081e-07 3.61851e-09 2.78127e-10
threshold=3.1500000000000004 3.3500000000000001 3.1500000000000008 2.3500000000000001 4.1500000000000012 1.6500000000000001
decision_type=2 2 2 2 2 2
left_child=1 -1 3 -2 -5 -6
right_child=2 -3 -4 4 5 -7
leaf_value=0.20816589290157841 -0.60296610696096042 0.60535834233317631 -0.60548929173398047 -0.60098389231356442 -0.60028315617208716 -0.60048803821896535
leaf_weight=0.048434374504722655 0.025038628606125712 0.05033925423049368 0.030032479960937053 0.014420864681596868 0.008997589935461292 0.013300079081091098
leaf_count=16 6 25 14 11 22 26
internal_value=0 0.410592 -0.602858 -0.601579 -0.600633 -0.600405
internal_weight=0 0.0987736 0.0917896 0.0617572 0.0367185 0.0222977
internal_count=120 41 79 65 59 48
is_linear=0
shrinkage=0.9


Tree=25
num_leaves=5
num_cat=0
split_feature=2 1 1 1
split_gain=0.16506 0.0409511 0.0700131 0.0280763
threshold=4.4500000000000011 2.4500000000000006 3.0500000000000003 2.8500000000000001
decision_type=2 2 2 2
left_child=1 -1 -3 -2
right_child=3 2 -4 -5
leaf_value=0.62047806489521851 -0.20372807235468873 0.56392714580981973 -0.59997541144598232 0.029044446475074762
leaf_weight=0.36864684661850367 1.115166668052552 0.1028483827249147 0.07059969988767989 0.67303668055683363
leaf_count=9 18 22 35 36
internal_value=0 0.450803 0.0901763 -0.116118
internal_weight=0 0.542095 0.173448 1.7882
internal_count=120 66 57 54
is_linear=0
shrinkage=0.9


Tree=26
num_leaves=5
num_cat=0
split_feature=2 2 0 0
split_gain=0.237633 0.0497151 3.7422e-05 3.86099e-06
threshold=4.4500000000000011 5.0500000000000007 5.0500000000000007 5.7500000000000009
decision_type=2 2 2 2
left_child=2 -2 -1 -4
right_child=1 -3 3 -5
leaf_value=-0.63191861151704654 0.014818458793209224 0.32405789525116657 -0.6110693122838381 -0.61830461760570754
leaf_weight=0.17758821125426072 1.1022767832328098 0.68141730473143969 0.12005988185592287 0.11890811748071428
leaf_count=25 22 32 30 11
internal_value=0 0.132956 -0.622023 -0.61467
internal_weight=0 1.78369 0.416556 0.238968
internal_count=120 54 66 41
is_linear=0
shrinkage=0.9


Tree=27
num_leaves=5
num_cat=0
split_feature=3 3 0 2
split_gain=0.0239116 0.00490397 1.00999e-07 2.10812e-10
threshold=0.45000000000000007 1.0500000000000003 5.9500000000000011 4.8500000000000005
decision_type=2 2 2 2
left_child=-1 -2 -3 -4
right_child=1 2 3 -5
leaf_value=0.6014692110778419 -0.041631370247681709 -0.60347032534530409 -0.60038690445182452 -0.60013061835269343
leaf_weight=0.027264632783044362 0.018652638129424304 0.028261899449717021 0.0043629940464597894 0.0064328239313908853
leaf_count=38 9 23 16 34
internal_value=0 -0.421272 -0.602576 -0.600234
internal_weight=0 0.0577104 0.0390577 0.0107958
internal_count=120 82 73 50
is_linear=0
shrinkage=0.9


Tree=28
num_leaves=6
num_cat=0
split_feature=3 2 2 2 1
split_gain=0.0751566 0.123425 0.0203613 0.023146 0.0088292
threshold=1.6500000000000001 4.9500000000000011 3.6000000000000005 3.1500000000000004 3.0500000000000003
decision_type=2 2 2 2 2
left_child=1 2 3 4 -1
right_child=-2 -3 -4 -5 -6
leaf_value=0.16596925140905588 -0.14108821935462332 -0.058238369323887131 0.69358565928467275 0.60996166166141319 -0.60172777460091953
leaf_weight=0.024230307550169528 0.83799410398933105 0.55216322839260101 0.32842210966919083 0.062475893646478653 0.024308349275088403
leaf_count=7 37 5 33 4 34
internal_value=0 0.225024 0.580951 0.247737 -0.218496
internal_weight=0 0.9916 0.439437 0.111015 0.0485387
internal_count=120 83 78 45 41
is_linear=0
shrinkage=0.9


Tree=29
num_leaves=9
num_cat=0
split_feature=3 2 2 1 0 1 1 0
split_gain=0.0866133 0.15283 0.00186826 1.15357e-06 6.20406e-07 3.30128e-09 9.92514e-10 4.59391e-11
threshold=1.6500000000000001 4.9500000000000011 4.8500000000000005 2.3500000000000001 6.4500000000000011 2.6500000000000008 2.8500000000000001 5.6500000000000012
decision_type=2 2 2 2 2 2 2 2
left_child=1 2 3 -1 5 -5 -7 -8
right_child=-2 -3 -4 4 -6 6 7 -9
leaf_value=-0.60808873317103229 0.15542541942849145 0.059232418043770226 -0.73423045860707659 -0.60123555966588316 -0.60718841647527289 -0.60101144582778065 -0.60061946971221025 -0.60050004420950498
leaf_weight=0.097070792457088828 0.83718077398953028 0.55242117121815681 0.22452442708890885 0.023336701095104218 0.019719731077202596 0.0057688665474415748 0.0044198358375524549 0.0063679529564524273
leaf_count=6 37 5 2 8 6 5 40 11
internal_value=0 -0.243254 -0.681597 -0.606175 -0.603059 -0.601017 -0.60071 -0.600549
internal_weight=0 0.933629 0.381208 0.156684 0.0596131 0.0398934 0.0165567 0.0107878
internal_count=120 83 78 76 70 64 56 51
is_linear=0
shrinkage=0.9


Tree=30
num_leaves=6
num_cat=0
split_feature=2 3 1 2 3
split_gain=0.0121762 0.0015221 5.13066e-09 1.3035e-08 9.10523e-12
threshold=1.8 1.0500000000000003 3.1500000000000008 3.6000000000000005 1.6500000000000001
decision_type=2 2 2 2 2
left_child=-1 -2 3 -3 -5
right_child=1 2 -4 4 -6
leaf_value=0.60085281060660534 -0.13872338084055 -0.60211580418021504 -0.60207129762360989 -0.60004855597425111 -0.60012644041013508
leaf_weight=0.013039367984674755 0.0083300134137971327 0.0052524455823004246 0.0082718917728925589 0.001999888696900598 0.0031012323579489021
leaf_count=38 9 1 14 32 26
internal_value=0 -0.458518 -0.601543 -0.601121 -0.600096
internal_weight=0 0.0269555 0.0186255 0.0103536 0.00510112
internal_count=120 82 73 59 58
is_linear=0
shrinkage=0.9


Tree=31
num_leaves=4
num_cat=0
split_feature=1 2 1
split_gain=0.0282424 0.0587089 0.205273
threshold=2.6500000000000008 4.9500000000000011 3.0500000000000003
decision_type=2 2 2
left_child=-1 2 -2
right_child=1 -3 -4
leaf_value=-0.16929440528390768 -0.60051916447000531 0.2996399225212919 0.62373192907143593
leaf_weight=0.31923345115501445 0.27947272461824446 0.68977397713751998 0.18396007522460422
leaf_count=20 27 32 41
internal_value=0 0.133191 -0.114552
internal_weight=0 1.15321 0.463433
internal_count=120 100 68
is_linear=0
shrinkage=0.9


Tree=32
num_leaves=4
num_cat=0
split_feature=1 0 3
split_gain=0.0318998 0.0584895 0.0999547
threshold=2.6500000000000008 6.1500000000000012 1.6500000000000001
decision_type=2 2 2
left_child=-1 2 -2
right_child=1 -3 -4
leaf_value=0.19149198133184964 -0.75748717290786272 0.079832140670226218 -0.013300814554914038
leaf_weight=0.30732698872452613 0.25386750946620373 0.53872605423566711 0.34468045333051123
leaf_count=20 54 39 7
internal_value=0 -0.135304 -0.328939
internal_weight=0 1.13727 0.598548
internal_count=120 100 61
is_linear=0
shrinkage=0.9


Tree=33
num_leaves=4
num_cat=0
split_feature=2 0 0
split_gain=0.008687 2.57562e-10 6.43e-11
threshold=3.1500000000000004 5.9500000000000011 6.0500000000000007
decision_type=2 2 2
left_child=-1 -2 -3
right_child=1 2 -4
leaf_value=0.39021998007263781 -0.60044947945074545 -0.60028051593504705 -0.60002922928828129
leaf_weight=0.019468124815830379 0.0080500665608269628 0.0016003123801056071 0.0017020909044731525
leaf_count=41 28 5 46
internal_value=0 -0.600363 -0.600151
internal_weight=0 0.0113525 0.0033024
internal_count=120 79 51
is_linear=0
shrinkage=0.9


Tree=34
num_leaves=5
num_cat=0
split_feature=2 1 0 1
split_gain=0.129962 0.0393364 0.0481709 0.0701227
threshold=5.1500000000000012 2.8500000000000001 6.0500000000000007 3.1500000000000008
decision_type=2 2 2 2
left_child=1 -1 3 -3
right_child=-2 2 -4 -5
leaf_value=0.0026205571870518518 -0.63462371340828616 -0.59444521163612607 0.70052456238619465 0.50506605079249367
leaf_weight=0.58004583070214721 0.20769530697725713 0.078741455323324772 0.18726823857650743 0.1164912600779644
leaf_count=33 26 16 12 33
internal_value=0 0.150366 0.374416 0.0616101
internal_weight=0 0.962547 0.382501 0.195233
internal_count=120 94 61 49
is_linear=0
shrinkage=0.9


Tree=35
num_leaves=6
num_cat=0
split_feature=2 0 3 1 0
split_gain=0.131602 0.0894082 0.066505 0.0424601 0.0102077
threshold=5.1500000000000012 6.3500000000000005 1.6500000000000001 2.3500000000000001 6.2500000000000009
decision_type=2 2 2 2 2
left_child=1 2 3 -1 -5
right_child=-2 -3 -4 4 -6
leaf_value=0.19115943679105424 0.63449905700698428 -0.69600394340540062 0.26400700745952016 -0.64970069545841724 -0.2984867157609134
leaf_weight=0.11150518589420244 0.20860999409342185 0.19626989805328776 0.3606556705199182 0.13072987172827766 0.1375640481710434
leaf_count=7 26 10 12 63 2
internal_value=0 -0.155937 -0.0127833 -0.275622 -0.469621
internal_weight=0 0.936725 0.740455 0.379799 0.268294
internal_count=120 94 84 72 65
is_linear=0
shrinkage=0.9


Tree=36
num_leaves=5
num_cat=0
split_feature=1 0 0 0
split_gain=0.0079005 0.00148438 9.27979e-09 1.07054e-11
threshold=3.2500000000000004 5.0500000000000007 5.1500000000000012 5.8500000000000005
decision_type=2 2 2 2
left_child=1 -1 -3 -4
right_child=-2 2 3 -5
leaf_value=0.052727704443135043 0.58805273854049278 -0.60202294582421179 -0.6000531177424524 -0.60015487251443556
leaf_weight=0.0041941586941902651 0.01438003810653754 0.0050234412774443626 0.0013847516815985728 0.0021190934580772591
leaf_count=17 35 1 21 46
internal_value=0 -0.385631 -0.601239 -0.600115
internal_weight=0 0.0127214 0.00852729 0.00350385
internal_count=120 85 68 67
is_linear=0
shrinkage=0.9


Tree=37
num_leaves=4
num_cat=0
split_feature=2 1 0
split_gain=0.0305463 0.0185072 0.00260581
threshold=5.0500000000000007 2.8500000000000001 5.9500000000000011
decision_type=2 2 2
left_child=1 -1 -3
right_child=-2 2 -4
leaf_value=-0.015587488382139509 -0.26942782189165321 0.44622473673395119 0.2321372799978052
leaf_weight=0.2943788949669397 0.23851407106121769 0.099840070331993047 0.085479553963523358
leaf_count=28 32 46 14
internal_value=0 0.124673 0.347476
internal_weight=0 0.479699 0.18532
internal_count=120 88 60
is_linear=0
shrinkage=0.9


Tree=38
num_leaves=6
num_cat=0
split_feature=2 3 2 0 0
split_gain=0.033514 0.0498344 3.95262e-05 1.37364e-07 8.0144e-09
threshold=4.9500000000000011 1.6500000000000001 4.8500000000000005 5.0500000000000007 5.9500000000000011
decision_type=2 2 2 2 2
left_child=1 2 3 -1 -5
right_child=-2 -3 -4 4 -6
leaf_value=-0.60497904394566127 0.19085919303298798 0.087423264553192742 -0.63422022798573263 -0.60171652242172247 -0.60261106233839057
leaf_weight=0.026864610271388756 0.36165729000640567 0.19486910244449973 0.076584840406212606 0.013556315063524949 0.020202166522722109
leaf_count=25 36 6 2 36 15
internal_value=0 -0.205131 -0.620629 -0.60346 -0.602252
internal_weight=0 0.332077 0.137208 0.0606231 0.0337585
internal_count=120 84 78 76 51
is_linear=0
shrinkage=0.9


Tree=39
num_leaves=3
num_cat=0
split_feature=1 3
split_gain=0.00538511 0.000149065
threshold=2.8500000000000001 0.45000000000000007
decision_type=2 2
left_child=-1 -2
right_child=1 -3
leaf_value=-0.43985675209330538 0.60098606282083944 0.41649998232104901
leaf_weight=0.0067397975062704054 0.0091315742520237109 0.0058013978354551918
leaf_count=37 37 46
internal_value=0 0.529314
internal_weight=0 0.014933
internal_count=120 83
is_linear=0
shrinkage=0.9


Tree=40
num_leaves=6
num_cat=0
split_feature=3 3 2 2 2
split_gain=0.00745489 0.0215834 0.063281 0.00722664 0.0102573
threshold=1.6500000000000001 1.5500000000000003 4.9500000000000011 3.6000000000000005 3.1500000000000004
decision_type=2 2 2 2 2
left_child=1 2 3 4 -1
right_child=-2 -3 -4 -5 -6
leaf_value=-0.36372783986518259 -0.090341467100383016 0.40743745400784609 -0.61693325812427424 0.61338642350592998 0.60300572817316034
leaf_weight=0.0183708409913379 0.27367774507365539 0.12248627060762374 0.091091867536306381 0.06165769999688564 0.017226197960553691
leaf_count=41 37 3 3 32 4
internal_value=0 0.113352 -0.0778994 0.426977 0.104096
internal_weight=0 0.310833 0.188347 0.0972547 0.035597
internal_count=120 83 80 77 45
is_linear=0
shrinkage=0.9


Tree=41
num_leaves=6
num_cat=0
split_feature=3 2 2 0 0
split_gain=0.00936363 0.0286983 6.35575e-06 2.28511e-08 1.23404e-09
threshold=1.6500000000000001 4.9500000000000011 4.8500000000000005 5.0500000000000007 5.9500000000000011
decision_type=2 2 2 2 2
left_child=1 2 3 -1 -5
right_child=-2 -3 -4 4 -6
leaf_value=-0.6027650345999287 0.091988892955129187 0.02986568554296298 -0.61843461986213244 -0.60098376577043844 -0.60145858936781715
leaf_weight=0.01499552199374321 0.27395721257198602 0.21350917220115662 0.043387402055031998 0.0073277692103861361 0.011224926701061122
leaf_count=25 37 5 2 36 15
internal_value=0 -0.139957 -0.611242 -0.601939 -0.601271
internal_weight=0 0.290445 0.0769356 0.0335482 0.0185527
internal_count=120 83 78 76 51
is_linear=0
shrinkage=0.9


Tree=42
num_leaves=4
num_cat=0
split_feature=3 3 2
split_gain=0.00359097 0.000273073 1.07421e-09
threshold=1.0500000000000003 0.45000000000000007 3.6000000000000005
decision_type=2 2 2
left_child=1 -1 -2
right_child=2 -3 -4
leaf_value=0.60037531099766772 -0.60104346017658872 0.25414779047757563 -0.60005883137132821
leaf_weight=0.0044165476974740159 0.0025996137410402298 0.0031692902084614616 0.0013707207059781013
leaf_count=38 1 9 72
internal_value=0 0.455725 -0.600704
internal_weight=0 0.00758584 0.00397033
internal_count=120 47 73
is_linear=0
shrinkage=0.9


Tree=43
num_leaves=4
num_cat=0
split_feature=1 2 0
split_gain=0.0269804 0.0146491 0.000263191
threshold=3.1500000000000008 4.9500000000000011 6.2500000000000009
decision_type=2 2 2
left_child=1 2 -1
right_child=-2 -3 -4
leaf_value=-0.37421231944275918 0.50637502505929444 0.047244690014207967 -0.2896377342245004
leaf_weight=0.062440282320494589 0.078586343745087106 0.25850865685424651 0.057022070849370721
leaf_count=39 45 26 10
internal_value=0 -0.0732027 -0.333843
internal_weight=0 0.377971 0.119462
internal_count=120 75 49
is_linear=0
shrinkage=0.9


Tree=44
num_leaves=4
num_cat=0
split_feature=1 1 2
split_gain=0.0161126 0.0190575 0.0169053
threshold=2.9500000000000006 3.1500000000000008 5.0500000000000007
decision_type=2 2 2
left_child=2 -2 -1
right_child=1 -3 -4
leaf_value=0.36992766200455524 -0.010821348515711413 -0.58459555534161278 -0.10551875700869656
leaf_weight=0.11872650553380026 0.13124482990534858 0.072951428779445937 0.12368046351184603
leaf_count=34 30 45 11
internal_value=0 -0.215809 0.127346
internal_weight=0 0.204196 0.242407
internal_count=120 75 45
is_linear=0
shrinkage=0.9


Tree=45
num_leaves=4
num_cat=0
split_feature=1 0 3
split_gain=0.00322185 0.000151472 4.94099e-05
threshold=3.1500000000000008 5.0500000000000007 0.45000000000000007
decision_type=2 2 2
left_child=1 -1 -2
right_child=2 -3 -4
leaf_value=-0.26905963100824776 0.60036604644772384 -0.60061590475846904 0.440727798609855
leaf_weight=0.0018399844273062627 0.0029597757998089946 0.0028369409773745247 0.0033456571996737239
leaf_count=13 29 62 16
internal_value=0 -0.470176 0.515662
internal_weight=0 0.00467693 0.00630543
internal_count=120 75 45
is_linear=0
shrinkage=0.9


Tree=46
num_leaves=8
num_cat=0
split_feature=2 0 0 0 1 3 1
split_gain=0.0129696 0.0235028 0.0124918 0.00519478 0.007753 0.00155895 0.00445135
threshold=5.0500000000000007 6.3500000000000005 5.9500000000000011 5.7500000000000009 2.4500000000000006 1.6500000000000001 3.0500000000000003
decision_type=2 2 2 2 2 2 2
left_child=1 2 3 4 -1 6 -6
right_child=-2 -3 -4 -5 5 -7 -8
leaf_value=0.57671068389364732 -0.1624946394233974 0.62657107089991704 -0.22213193363255629 0.60967695351029616 0.58050060835201833 -0.60163924857777884 -0.60055051713954288
leaf_weight=0.013942482488346286 0.1714911781164119 0.064034821786634666 0.095763989852457598 0.025620639388762356 0.0046291573594317015 0.0082692909054458141 0.005853277583810268
leaf_count=7 32 10 13 5 17 3 33
internal_value=0 0.168298 -0.022159 0.306234 0.068443 -0.30947 -0.0789855
internal_weight=0 0.218114 0.154079 0.0583148 0.0326942 0.0187517 0.0104824
internal_count=120 88 78 65 60 53 50
is_linear=0
shrinkage=0.9


Tree=47
num_leaves=6
num_cat=0
split_feature=2 0 0 0 3
split_gain=0.0139141 0.0224989 0.0154482 0.0029299 0.00945862
threshold=5.0500000000000007 6.3500000000000005 5.9500000000000011 5.7500000000000009 1.6500000000000001
decision_type=2 2 2 2 2
left_child=1 2 3 4 -1
right_child=-2 -3 -4 -5 -6
leaf_value=-0.60136395070546045 0.16345441123411547 -0.62656825471881827 0.22441466753895348 -0.61034986134333491 0.60164299615449368
leaf_weight=0.014650607754791212 0.1718415364412067 0.064010577970350369 0.095608130768368937 0.025408561014377495 0.0082891375059261918
leaf_count=57 32 10 13 5 3
internal_value=0 -0.182637 0.014758 -0.399835 -0.166665
internal_weight=0 0.207967 0.143956 0.0483483 0.0229397
internal_count=120 88 78 65 60
is_linear=0
shrinkage=0.9


end of trees

feature_importances:
petal_length=59
sepal_width=55
sepal_length=44
petal_width=39

parameters:
[boosting: gbdt]
[objective: multiclass]
[metric: multi_logloss]
[tree_learner: serial]
[device_type: cpu]
[linear_tree: 0]
[data: ]
[valid: ]
[num_iterations: 16]
[learning_rate: 0.9]
[num_leaves: 31]
[num_threads: 0]
[deterministic: 0]
[force_col_wise: 0]
[force_row_wise: 0]
[histogram_pool_size: -1]
[max_depth: -1]
[min_data_in_leaf: 20]
[min_sum_hessian_in_leaf: 0.001]
[bagging_fraction: 1]
[pos_bagging_fraction: 1]
[neg_bagging_fraction: 1]
[bagging_freq: 0]
[bagging_seed: 400]
[feature_fraction: 1]
[feature_fraction_bynode: 1]
[feature_fraction_seed: 30056]
[extra_trees: 0]
[extra_seed: 12879]
[early_stopping_round: 0]
[first_metric_only: 0]
[max_delta_step: 0]
[lambda_l1: 0]
[lambda_l2: 0]
[linear_lambda: 0]
[min_gain_to_split: 0]
[drop_rate: 0.1]
[max_drop: 50]
[skip_drop: 0.5]
[xgboost_dart_mode: 0]
[uniform_drop: 0]
[drop_seed: 17869]
[top_rate: 0.2]
[other_rate: 0.1]
[min_data_per_group: 100]
[max_cat_threshold: 32]
[cat_l2: 10]
[cat_smooth: 10]
[max_cat_to_onehot: 4]
[top_k: 20]
[monotone_constraints: ]
[monotone_constraints_method: basic]
[monotone_penalty: 0]
[feature_contri: ]
[forcedsplits_filename: ]
[refit_decay_rate: 0.9]
[cegb_tradeoff: 1]
[cegb_penalty_split: 0]
[cegb_penalty_feature_lazy: ]
[cegb_penalty_feature_coupled: ]
[path_smooth: 0]
[interaction_constraints: ]
[verbosity: 0]
[saved_feature_importance_type: 0]
[max_bin: 255]
[max_bin_by_feature: ]
[min_data_in_bin: 3]
[bin_construct_sample_cnt: 200000]
[data_random_seed: 175]
[is_enable_sparse: 1]
[enable_bundle: 1]
[use_missing: 1]
[zero_as_missing: 0]
[feature_pre_filter: 1]
[pre_partition: 0]
[two_round: 0]
[header: 0]
[label_column: ]
[weight_column: ]
[group_column: ]
[ignore_column: ]
[categorical_feature: ]
[forcedbins_filename: ]
[objective_seed: 16083]
[num_class: 3]
[is_unbalance: 0]
[scale_pos_weight: 1]
[sigmoid: 1]
[boost_from_average: 1]
[reg_sqrt: 0]
[alpha: 0.9]
[fair_c: 1]
[poisson_max_delta_step: 0.7]
[tweedie_variance_power: 1.5]
[lambdarank_truncation_level: 30]
[lambdarank_norm: 1]
[label_gain: ]
[eval_at: ]
[multi_error_top_k: 1]
[auc_mu_weights: ]
[num_machines: 1]
[local_listen_port: 12400]
[time_out: 120]
[machine_list_filename: ]
[machines: ]
[gpu_platform_id: -1]
[gpu_device_id: -1]
[gpu_use_dp: 0]
[num_gpu: 1]

end of parameters

pandas_categorical:[]
